trainedModel = {
    "W1": [
        [
            -0.004042906652414226,
            -0.004958934082541567,
            -0.05965880897194009,
            -0.04634062101855224,
            -0.004473722919586977,
            -0.01359846601881129,
            -0.031154307320359245,
            -0.05937938736088551,
            0.007886415635584227,
            -0.02836562750978068,
            0.007375994900784674,
            -0.01889077115150206,
            -0.008388598228933238,
            -0.023218288215658283,
            0.032573852459358864,
            -0.033476973351305214,
            -0.10128644696651935,
            -0.014161984105356986,
            -0.02218071345765285,
            -0.09459821214279812,
            -0.008954561067690252,
            -0.027441191388638656,
            -0.047730831613462206,
            -0.010214106051297937,
            -0.017733054686204588,
            0.02088461002102226,
            -0.002169510957615142,
            -0.03066845602687553,
            -0.12743695358838447,
            -0.01226547135009124,
            -0.051425562938918375,
            -0.0752238128531275,
            -0.010998954087704942,
            -0.029715075029733255,
            0.003451412529123452,
            0.0302046557236618,
            0.0008572499537908054,
            0.021168299315929492,
            -0.04282804782715858,
            -0.013920555472137067,
            0.025297018729044465,
            0.004005812708867324,
            -0.042458084282515636,
            0.015706594824094835,
            -0.030090699662987153,
            -0.011210766001791111,
            0.032387130230447383,
            -0.022543631570355147
        ],
        [
            -0.030237011769962827,
            -0.007441674625444635,
            -0.027299520593241793,
            -0.06237925604855846,
            0.02594245383446506,
            -0.0453225314570735,
            -0.023578653907568546,
            -0.12380824005711638,
            0.03142227958567889,
            -0.05120193502434404,
            0.053634370723471984,
            -0.040554411748639024,
            0.02105887823021707,
            -0.05650041391233182,
            0.11412204256706271,
            -0.060556242840532265,
            -0.15640157979860908,
            -0.034990929995209835,
            -0.030339210455432846,
            -0.14719199010310566,
            -0.0369945137365227,
            -0.037884341032561726,
            0.006715515871353443,
            -0.033486183246825896,
            -0.025474405477983762,
            0.07044394586782905,
            -0.02043882097277977,
            -0.045526251571271326,
            -0.20849145720066614,
            -0.0453794927347156,
            -0.1085137164509666,
            -0.15726139597056335,
            -0.028075163239076977,
            -0.026608620479242784,
            0.03092195754300061,
            0.09195391894178978,
            0.03317212687195259,
            0.0482287740997996,
            -0.015023269875197474,
            0.06022419580554808,
            0.06084549598750901,
            0.019242946045234476,
            -0.042759841899458285,
            0.05210680879858332,
            -0.05001706680216772,
            0.01636832564682786,
            0.10488959807947035,
            -0.05590545167115637
        ],
        [
            -0.05268481603157641,
            -0.10054794286692721,
            -0.07521720577840238,
            -0.045030226545279356,
            -0.24141557873025096,
            0.012336858317574818,
            -0.0261100169810953,
            -0.09152535190430922,
            -0.03200889409083369,
            -0.059139150361642724,
            -0.18595982682753576,
            -0.04399242950838607,
            -0.0021275042947785606,
            -0.11061553405281516,
            -0.03502740819417862,
            -0.08844299531492038,
            0.026003918083540224,
            -0.0002875008325925101,
            -0.08351473939256086,
            0.06492477947089818,
            0.0005420222233815992,
            -0.11506768743906343,
            0.07724627567121145,
            -0.016628157733556338,
            -0.08001374680383691,
            -0.15173911056167405,
            -0.022016287173714174,
            -0.1370549198736598,
            0.16877208132942836,
            0.023693071582988914,
            -0.16616066130004056,
            -0.022740708071542347,
            0.002220744177937218,
            -0.09251588116925863,
            -0.10659307032817548,
            -0.039889894149121974,
            -0.0209505922126551,
            -0.07661419308704762,
            -0.048026323928672676,
            0.0210410236157936,
            -0.14851470254121488,
            -0.0562195492970775,
            -0.07976736549567713,
            -0.04949939588169817,
            -0.0619686779860613,
            -0.013605686282060585,
            -0.1099319964907545,
            -0.07311340364898238
        ],
        [
            -0.04676941749401151,
            -0.015326779381925419,
            -0.028266921374877046,
            -0.07275063478922945,
            0.015300640433397983,
            -0.05880585627745965,
            -0.016254917134019976,
            -0.156074394025024,
            0.035819699612120705,
            -0.05586376613205061,
            0.0567428653266641,
            -0.06416807135261142,
            0.028859859494162,
            -0.08301105400970735,
            0.1514406334958564,
            -0.08831237562003155,
            -0.17539818930101972,
            -0.05468505858038693,
            -0.044102474945180485,
            -0.1678972097768113,
            -0.04171913064922232,
            -0.029380317579239437,
            0.03218197717225672,
            -0.03916808034173596,
            -0.045038234704083774,
            0.07270427584930146,
            -0.02866458891680729,
            -0.058411985954596936,
            -0.2435940509373249,
            -0.05787531747548575,
            -0.13425574864362624,
            -0.2028645610912394,
            -0.04064959479269408,
            -0.025469404546096037,
            0.037008848917695035,
            0.11343192389431,
            0.020136972425029816,
            0.05571034579481384,
            -0.0018251329468616454,
            0.07848796123396032,
            0.07079682578345294,
            0.030059386648863644,
            -0.05467920985761014,
            0.06314162942561319,
            -0.04073467156886598,
            0.01662156274083676,
            0.11116924355951743,
            -0.08553132233726576
        ],
        [
            -0.011703364691415322,
            -0.0036373283878474386,
            -0.0586155309493473,
            -0.05649233771060495,
            0.011735808117332113,
            -0.025272732773307827,
            -0.0328702580245471,
            -0.07479922021072259,
            0.01824562268296822,
            -0.04025991864346679,
            0.02670295826654815,
            -0.023332494894629158,
            0.0021902758087972546,
            -0.04006904928950261,
            0.06673049769351112,
            -0.04107747492345312,
            -0.12480319024163454,
            -0.020462948466526142,
            -0.02271154244396351,
            -0.11416649095882032,
            -0.01095729766709247,
            -0.03678321890038671,
            -0.030422815774438648,
            -0.02105368345442216,
            -0.023296486803355693,
            0.038801051188517476,
            -0.010138527904364914,
            -0.03033244016243045,
            -0.15689239451492232,
            -0.023201749398276555,
            -0.06239840950023594,
            -0.09617327446341734,
            -0.0090399558825152,
            -0.03152318060463503,
            0.01572777824149291,
            0.05179435459494588,
            0.015050029303770302,
            0.029817882867666214,
            -0.03402952319004872,
            0.011786349952103958,
            0.03883932374820055,
            0.007299068042593155,
            -0.03725474011205616,
            0.03135593453953785,
            -0.03191044952206464,
            -0.0016663945048774325,
            0.0586488213944309,
            -0.02779127098312627
        ],
        [
            -0.01382527192041174,
            -0.02926361769717013,
            -0.029705226528301088,
            -0.014012621610786494,
            -0.0755994795724475,
            0.004001113201820196,
            -0.03414386040145216,
            -0.029642917071730886,
            -0.017012561797349286,
            -0.014527418608086694,
            -0.045965416530290876,
            -0.00516504807808154,
            -0.01471876280245823,
            -0.027926421456762524,
            -0.04916062137471829,
            -0.04262769423614437,
            -0.011919673585618578,
            0.0045439972838392005,
            -0.058963873671892805,
            -0.007307478937868396,
            0.0034792760548151185,
            -0.0348961783730587,
            -0.007214234160881445,
            -0.00739191053835963,
            -0.022709663239721557,
            -0.05554272804421885,
            -0.011108563276746936,
            -0.05869877980638647,
            0.024490781415091787,
            0.01157314210169701,
            -0.05926291918806055,
            -0.015305117735890167,
            0.0070618977774184665,
            -0.026022084841414737,
            -0.03306683015277192,
            -0.03687265582898717,
            -0.014137351294235002,
            -0.02789465285484138,
            -0.020512489624157568,
            -0.02890171039309007,
            -0.04850998138115424,
            -0.02325852424095753,
            -0.02596671342596195,
            -0.03865164631354717,
            -0.011339767107054928,
            -0.004650463363629593,
            -0.033670813202965055,
            -0.022895939308852795
        ],
        [
            -0.19309293700706676,
            -0.19251339522769956,
            -0.2453992629238472,
            -0.26013088356704356,
            -0.4943747730814509,
            -0.049886531123394244,
            -0.20213772699408353,
            -0.1938453645797321,
            -0.04815472519819955,
            -0.21713219699689978,
            -0.47226240095845723,
            -0.20809683360950876,
            -0.00469686085548068,
            -0.2769467208289573,
            0.10556290908536876,
            -0.19934123680497512,
            0.11095075019914666,
            -0.015615823997801816,
            -0.21126466001582683,
            0.2145605760267446,
            0.0049884573978127575,
            -0.2701088493328289,
            0.17793173910721066,
            -0.05544016811325197,
            -0.13810082533868254,
            -0.33063841355732476,
            -0.06586248180866372,
            -0.21868919557774816,
            0.47241818810898784,
            0.024454393804435537,
            -0.3834985355780832,
            -0.1619227450345653,
            -0.019311130346556973,
            -0.15404007563803282,
            -0.37575544499396907,
            -0.018085900048596594,
            0.013273852999706915,
            -0.2008982420502524,
            -0.1989437717636113,
            0.12231800541976573,
            -0.38449913179146306,
            -0.12092938928570852,
            -0.19153722139840787,
            -0.11635641841995858,
            -0.13351520262671754,
            0.015302862840072599,
            -0.2914808901860412,
            -0.1804717951490974
        ],
        [
            -0.1176790371078763,
            -0.054418760647149816,
            -0.21931760752184243,
            -0.18519353061349847,
            -0.012512925734033687,
            -0.1117637746161696,
            0.006221083215581753,
            -0.2422858824526671,
            0.022185362405174384,
            -0.1869932116008667,
            0.06790808786614604,
            -0.12963538959961282,
            0.04333537544813565,
            -0.21519194173894357,
            0.33354590631038905,
            -0.20239291190886355,
            -0.3305207798115753,
            -0.09433353883367734,
            -0.03477356120364998,
            -0.26296271805204313,
            -0.08265745751626881,
            -0.1019785626853095,
            0.17233542779924635,
            -0.09483324420642246,
            -0.12262704671765426,
            0.09053627029602379,
            -0.10496380946292069,
            -0.04473887982510695,
            -0.3894186417986696,
            -0.0923315625606683,
            -0.2299846323681732,
            -0.40460873610280607,
            -0.08066454450094465,
            -0.12353651041343648,
            0.011516815768880377,
            0.2570138064231019,
            -0.02059662683320122,
            0.05607218697462891,
            -0.039872334561746284,
            0.12063053381217016,
            -0.019849822085816676,
            0.09807097371297253,
            -0.1206884416833591,
            0.0830701452737966,
            -0.14347191324390351,
            -0.006009537569176352,
            0.11617180832208149,
            -0.13979699431713796
        ],
        [
            -0.009401218855033667,
            -0.006381174718419181,
            -0.0631655950771222,
            -0.034003071301646606,
            -0.011827810100682078,
            -0.009271975579955426,
            -0.03014079165879131,
            -0.050868537142869416,
            0.00542283598000127,
            -0.024596627292288207,
            0.009107681906742857,
            -0.011241961211119613,
            -0.01390601908037461,
            -0.023507872847509496,
            0.022595321753922138,
            -0.03394343647970368,
            -0.09144781175577625,
            -0.011909417225887703,
            -0.03202521014841977,
            -0.08791735405965882,
            -0.002791946853389651,
            -0.027965854887989944,
            -0.05156931885736147,
            -0.011518930700115568,
            -0.025717950190681727,
            0.01422530071296519,
            -0.007403355932784185,
            -0.03441276940191648,
            -0.10924585437564126,
            -0.011098895736457963,
            -0.04405539976074405,
            -0.06676425622345779,
            -0.005584014767728134,
            -0.02650592048090011,
            -0.003526080261124916,
            0.012660574614315233,
            -0.002670011411134141,
            0.01703708233637347,
            -0.037029078637233724,
            -0.02445557439743866,
            0.01897034229598392,
            0.0008037115315049485,
            -0.04227759563272809,
            0.008508516965241708,
            -0.031083173694744205,
            -0.015505404082460887,
            0.02919125537464025,
            -0.014943932761949393
        ],
        [
            -0.03268457904642995,
            -0.06471615718619647,
            -0.039986450373456744,
            -0.020476130341841325,
            -0.14987852256034476,
            0.011086945255511986,
            -0.023984333554562212,
            -0.046603824396569925,
            -0.029827624668258338,
            -0.038020240800105215,
            -0.11021626545278695,
            -0.01872357226492311,
            -0.007607463593185431,
            -0.05938327296026325,
            -0.04634809081443836,
            -0.07046026437926087,
            0.022733056032505496,
            0.0033319426757736654,
            -0.07434173532180607,
            0.042414657369973706,
            0.007108144373664297,
            -0.06868327091823773,
            0.04739748807054994,
            -0.017173004542155104,
            -0.04748584704794789,
            -0.10985475414819205,
            -0.021554197065189105,
            -0.08798799604621599,
            0.11442710054195361,
            0.013866713892409383,
            -0.09086215930927215,
            -0.0064711438359851,
            0.0016816380829105734,
            -0.05395970442748625,
            -0.07012561423415774,
            -0.050650791229998826,
            -0.02384288531111133,
            -0.05114675964104093,
            -0.023395914528820075,
            -0.006332592852371885,
            -0.11272484669840051,
            -0.03064744671497916,
            -0.047728264957339346,
            -0.05914080503816458,
            -0.017861548961178805,
            -0.00529534123739996,
            -0.08071191658035334,
            -0.038844973222742885
        ]
    ],
    "b1": [
        [
            -0.12308532683643574
        ],
        [
            -0.12562282368244151
        ],
        [
            -0.28030856739254206
        ],
        [
            -0.15024404374678682
        ],
        [
            -0.11825834518063846
        ],
        [
            -0.13753543202883198
        ],
        [
            -0.6474678911155336
        ],
        [
            -0.35422497579641077
        ],
        [
            -0.12499295130820465
        ],
        [
            -0.19340489617464546
        ]
    ],
    "W2": [
        [
            0.14059498087252661,
            0.3857803620060418,
            -0.368900677816927,
            0.4764991953295419,
            0.22018229380588492,
            -0.08756012106929613,
            -1.0815196592736405,
            0.8528092440519396,
            0.1099471701643351,
            -0.2388239744012344
        ]
    ],
    "b2": [
        [
            -0.06242255953953525
        ]
    ]
}